<?xml version="1.0"?>
<opencv_storage>
<cascade>
  <stageType>BOOST</stageType>
  <featureType>HAAR</featureType>
  <height>20</height>
  <width>20</width>
  <stageParams>
    <boostType>GAB</boostType>
    <minHitRate>9.9500000476837158e-01</minHitRate>
    <maxFalseAlarm>5.0000000000000000e-01</maxFalseAlarm>
    <weightTrimRate>9.4999999999999996e-01</weightTrimRate>
    <maxDepth>1</maxDepth>
    <maxWeakCount>100</maxWeakCount></stageParams>
  <featureParams>
    <maxCatCount>0</maxCatCount>
    <featSize>1</featSize>
    <mode>BASIC</mode></featureParams>
  <stageNum>4</stageNum>
  <stages>
    <!-- stage 0 -->
    <_>
      <maxWeakCount>2</maxWeakCount>
      <stageThreshold>-5.1302619278430939e-02</stageThreshold>
      <weakClassifiers>
        <_>
          <internalNodes>
            0 -1 0 5.9184052050113678e-02</internalNodes>
          <leafValues>
            -8.8235294818878174e-01 8.8377726078033447e-01</leafValues></_>
        <_>
          <internalNodes>
            0 -1 3 5.0861515104770660e-02</internalNodes>
          <leafValues>
            -7.1790713071823120e-01 8.3105033636093140e-01</leafValues></_></weakClassifiers></_>
    <!-- stage 1 -->
    <_>
      <maxWeakCount>5</maxWeakCount>
      <stageThreshold>-7.3056751489639282e-01</stageThreshold>
      <weakClassifiers>
        <_>
          <internalNodes>
            0 -1 6 4.6230889856815338e-02</internalNodes>
          <leafValues>
            -6.5656566619873047e-01 8.2089549303054810e-01</leafValues></_>
        <_>
          <internalNodes>
            0 -1 13 -2.3077847436070442e-02</internalNodes>
          <leafValues>
            6.7560839653015137e-01 -7.0262384414672852e-01</leafValues></_>
        <_>
          <internalNodes>
            0 -1 18 2.2963451221585274e-02</internalNodes>
          <leafValues>
            -6.0460090637207031e-01 7.3039966821670532e-01</leafValues></_>
        <_>
          <internalNodes>
            0 -1 15 4.8365280963480473e-03</internalNodes>
          <leafValues>
            -4.8966303467750549e-01 6.9877195358276367e-01</leafValues></_>
        <_>
          <internalNodes>
            0 -1 5 -3.1797073315829039e-03</internalNodes>
          <leafValues>
            5.3445100784301758e-01 -6.1991631984710693e-01</leafValues></_></weakClassifiers></_>
    <!-- stage 2 -->
    <_>
      <maxWeakCount>6</maxWeakCount>
      <stageThreshold>-8.7892502546310425e-01</stageThreshold>
      <weakClassifiers>
        <_>
          <internalNodes>
            0 -1 2 6.2360074371099472e-02</internalNodes>
          <leafValues>
            -4.0088105201721191e-01 7.8016084432601929e-01</leafValues></_>
        <_>
          <internalNodes>
            0 -1 1 7.5840458273887634e-02</internalNodes>
          <leafValues>
            -6.8538612127304077e-01 5.5807745456695557e-01</leafValues></_>
        <_>
          <internalNodes>
            0 -1 9 3.2005451619625092e-02</internalNodes>
          <leafValues>
            -5.0534242391586304e-01 6.9150316715240479e-01</leafValues></_>
        <_>
          <internalNodes>
            0 -1 17 5.5093383416533470e-03</internalNodes>
          <leafValues>
            -3.7569499015808105e-01 6.4757090806961060e-01</leafValues></_>
        <_>
          <internalNodes>
            0 -1 14 1.7382049933075905e-02</internalNodes>
          <leafValues>
            -5.1005238294601440e-01 5.5924236774444580e-01</leafValues></_>
        <_>
          <internalNodes>
            0 -1 10 3.6033682525157928e-02</internalNodes>
          <leafValues>
            -6.0587584972381592e-01 4.7705218195915222e-01</leafValues></_></weakClassifiers></_>
    <!-- stage 3 -->
    <_>
      <maxWeakCount>7</maxWeakCount>
      <stageThreshold>-7.7665030956268311e-01</stageThreshold>
      <weakClassifiers>
        <_>
          <internalNodes>
            0 -1 4 -3.4226100891828537e-02</internalNodes>
          <leafValues>
            6.1620467901229858e-01 -6.7938929796218872e-01</leafValues></_>
        <_>
          <internalNodes>
            0 -1 11 1.0604779527056962e-04</internalNodes>
          <leafValues>
            3.9133480191230774e-01 -7.4858820438385010e-01</leafValues></_>
        <_>
          <internalNodes>
            0 -1 19 -6.6703972406685352e-03</internalNodes>
          <leafValues>
            6.7708677053451538e-01 -3.9890867471694946e-01</leafValues></_>
        <_>
          <internalNodes>
            0 -1 7 -1.0424664244055748e-02</internalNodes>
          <leafValues>
            7.2676342725753784e-01 -3.7833282351493835e-01</leafValues></_>
        <_>
          <internalNodes>
            0 -1 12 -1.4846776321064681e-04</internalNodes>
          <leafValues>
            -8.3904409408569336e-01 2.9247674345970154e-01</leafValues></_>
        <_>
          <internalNodes>
            0 -1 16 9.5250792801380157e-03</internalNodes>
          <leafValues>
            -6.1741501092910767e-01 3.9835882186889648e-01</leafValues></_>
        <_>
          <internalNodes>
            0 -1 8 2.6210024952888489e-02</internalNodes>
          <leafValues>
            -5.5786085128784180e-01 5.2901148796081543e-01</leafValues></_></weakClassifiers></_></stages>
  <features>
    <_>
      <rects>
        <_>
          0 4 12 7 -1.</_>
        <_>
          4 4 4 7 3.</_></rects>
      <tilted>0</tilted></_>
    <_>
      <rects>
        <_>
          0 5 12 5 -1.</_>
        <_>
          4 5 4 5 3.</_></rects>
      <tilted>0</tilted></_>
    <_>
      <rects>
        <_>
          0 8 9 5 -1.</_>
        <_>
          3 8 3 5 3.</_></rects>
      <tilted>0</tilted></_>
    <_>
      <rects>
        <_>
          0 8 9 9 -1.</_>
        <_>
          3 8 3 9 3.</_></rects>
      <tilted>0</tilted></_>
    <_>
      <rects>
        <_>
          2 9 10 6 -1.</_>
        <_>
          7 9 5 6 2.</_></rects>
      <tilted>0</tilted></_>
    <_>
      <rects>
        <_>
          3 18 12 2 -1.</_>
        <_>
          3 19 12 1 2.</_></rects>
      <tilted>0</tilted></_>
    <_>
      <rects>
        <_>
          4 0 4 15 -1.</_>
        <_>
          4 5 4 5 3.</_></rects>
      <tilted>0</tilted></_>
    <_>
      <rects>
        <_>
          4 18 9 2 -1.</_>
        <_>
          4 19 9 1 2.</_></rects>
      <tilted>0</tilted></_>
    <_>
      <rects>
        <_>
          5 0 11 4 -1.</_>
        <_>
          5 2 11 2 2.</_></rects>
      <tilted>0</tilted></_>
    <_>
      <rects>
        <_>
          5 0 15 4 -1.</_>
        <_>
          5 2 15 2 2.</_></rects>
      <tilted>0</tilted></_>
    <_>
      <rects>
        <_>
          5 1 11 12 -1.</_>
        <_>
          5 5 11 4 3.</_></rects>
      <tilted>0</tilted></_>
    <_>
      <rects>
        <_>
          5 7 1 2 -1.</_>
        <_>
          5 8 1 1 2.</_></rects>
      <tilted>0</tilted></_>
    <_>
      <rects>
        <_>
          6 5 2 2 -1.</_>
        <_>
          6 6 2 1 2.</_></rects>
      <tilted>0</tilted></_>
    <_>
      <rects>
        <_>
          8 2 7 10 -1.</_>
        <_>
          8 7 7 5 2.</_></rects>
      <tilted>0</tilted></_>
    <_>
      <rects>
        <_>
          10 5 6 4 -1.</_>
        <_>
          13 5 3 4 2.</_></rects>
      <tilted>0</tilted></_>
    <_>
      <rects>
        <_>
          10 6 6 1 -1.</_>
        <_>
          13 6 3 1 2.</_></rects>
      <tilted>0</tilted></_>
    <_>
      <rects>
        <_>
          13 6 6 4 -1.</_>
        <_>
          15 6 2 4 3.</_></rects>
      <tilted>0</tilted></_>
    <_>
      <rects>
        <_>
          14 8 6 1 -1.</_>
        <_>
          16 8 2 1 3.</_></rects>
      <tilted>0</tilted></_>
    <_>
      <rects>
        <_>
          15 0 2 15 -1.</_>
        <_>
          15 5 2 5 3.</_></rects>
      <tilted>0</tilted></_>
    <_>
      <rects>
        <_>
          18 6 2 8 -1.</_>
        <_>
          19 6 1 8 2.</_></rects>
      <tilted>0</tilted></_></features></cascade>
</opencv_storage>
